net 
{
    node_size = (130 55);
}

node A
{
    label = "A";
    position = (178 144);
    states = ("true"  "false");
    excludepolicy = "include whole CPT";
    ismapvariable = "false";
    ID = "variable2";
    DSLxSUBMODEL = "Root Submodel";
    diagnosistype = "AUXILIARY";
}

node B
{
    label = "B";
    position = (338 42);
    states = ("true"  "false");
    excludepolicy = "include whole CPT";
    ismapvariable = "false";
    ID = "variable4";
    DSLxSUBMODEL = "Root Submodel";
    diagnosistype = "AUXILIARY";
}

node C
{
    label = "C";
    position = (150 -27);
    states = ("true"  "false");
    excludepolicy = "include whole CPT";
    ismapvariable = "false";
    ID = "variable3";
    DSLxSUBMODEL = "Root Submodel";
    diagnosistype = "AUXILIARY";
}

potential (A |)
{
    data = (0.68181818 0.31818182);
}

potential (B | A)
{
    data = ((0.43750000 0.56250000)
        (0.37500000 0.62500000));
}

potential (C | A B)
{
    data = (((0.37500000 0.62500000)
        (0.30000000 0.70000000))
        ((0.75000000 0.25000000)
        (0.50000000 0.50000000)));
}
